<?xml version="1.0"?>
<opencv_storage>
<opencv_ml_svm>
  <format>3</format>
  <svmType>C_SVC</svmType>
  <kernel>
    <type>RBF</type>
    <gamma>0.00015000000000000001</gamma></kernel>
  <C>0.10000000000000001</C>
  <term_criteria><epsilon>1.1920928955078125e-07</epsilon>
    <iterations>1000</iterations></term_criteria>
  <var_count>2</var_count>
  <class_count>2</class_count>
  <class_labels type_id="opencv-matrix">
    <rows>2</rows>
    <cols>1</cols>
    <dt>i</dt>
    <data>
      0 1</data></class_labels>
  <sv_total>45</sv_total>
  <support_vectors>
    <_>
      64. 93.</_>
    <_>
      23. 145.</_>
    <_>
      20. 39.</_>
    <_>
      51. 118.</_>
    <_>
      30. 147.</_>
    <_>
      97. 83.</_>
    <_>
      14. 84.</_>
    <_>
      37. 106.</_>
    <_>
      151. 137.</_>
    <_>
      11. 59.</_>
    <_>
      118. 44.</_>
    <_>
      115. 98.</_>
    <_>
      129. 42.</_>
    <_>
      102. 51.</_>
    <_>
      149. 19.</_>
    <_>
      50. 124.</_>
    <_>
      153. 19.</_>
    <_>
      55. 69.</_>
    <_>
      37. 139.</_>
    <_>
      8. 82.</_>
    <_>
      5. 62.</_>
    <_>
      132. 150.</_>
    <_>
      196. 189.</_>
    <_>
      225. 200.</_>
    <_>
      146. 236.</_>
    <_>
      135. 114.</_>
    <_>
      100. 206.</_>
    <_>
      146. 232.</_>
    <_>
      143. 254.</_>
    <_>
      151. 158.</_>
    <_>
      99. 213.</_>
    <_>
      107. 148.</_>
    <_>
      134. 147.</_>
    <_>
      132. 172.</_>
    <_>
      231. 203.</_>
    <_>
      132. 243.</_>
    <_>
      98. 104.</_>
    <_>
      147. 182.</_>
    <_>
      156. 161.</_>
    <_>
      100. 185.</_>
    <_>
      170. 247.</_>
    <_>
      182. 219.</_>
    <_>
      115. 158.</_>
    <_>
      134. 140.</_>
    <_>
      216. 239.</_></support_vectors>
  <decision_functions>
    <_>
      <sv_count>45</sv_count>
      <rho>-0.038665479358989452</rho>
      <alpha>
        0.10000000000000001 0.10000000000000001 0.10000000000000001
        0.10000000000000001 0.10000000000000001 0.10000000000000001
        0.081182945175364646 0.10000000000000001 0.10000000000000001
        0.10000000000000001 0.10000000000000001 0.10000000000000001
        0.10000000000000001 0.10000000000000001 0.10000000000000001
        0.10000000000000001 0.10000000000000001 0.062236864264284868
        0.10000000000000001 0.10000000000000001 0.10000000000000001
        0.10000000000000001 -0.10000000000000001 -0.10000000000000001
        -0.10000000000000001 -0.10000000000000001 -0.10000000000000001
        -0.024287456909065523 -0.10000000000000001 -0.10000000000000001
        -0.10000000000000001 -0.10000000000000001 -0.10000000000000001
        -0.10000000000000001 -0.10000000000000001 -0.10000000000000001
        -0.10000000000000001 -0.019132352530583974 -0.10000000000000001
        -0.10000000000000001 -0.10000000000000001 -0.10000000000000001
        -0.10000000000000001 -0.10000000000000001 -0.10000000000000001</alpha>
      <index>
        0 1 2 3 4 5 6 7 8 9 10 11 12 13 14 15 16 17 18 19 20 21 22 23 24
        25 26 27 28 29 30 31 32 33 34 35 36 37 38 39 40 41 42 43 44</index></_></decision_functions></opencv_ml_svm>
</opencv_storage>
